Language model created by QuickLM on Thu Sep  8 10:27:16 EDT 2022
Copyright (c) 1996-2010 Carnegie Mellon University and Alexander I. Rudnicky

The model is in standard ARPA format, designed by Doug Paul while he was at MITRE.

The code that was used to produce this language model is available in Open Source.
Please visit http://www.speech.cs.cmu.edu/tools/ for more information

The (fixed) discount mass is 0.5. The backoffs are computed using the ratio method.
This model based on a corpus of 25 sentences and 18 words

\data\
ngram 1=18
ngram 2=41
ngram 3=50

\1-grams:
-0.9074 </s> -0.3010
-0.9074 <s> -0.2437
-2.0043 CALCULATOR -0.2437
-2.0043 CHROME -0.2437
-1.2262 CLOSE -0.2461
-2.0043 CONTROL -0.2967
-2.0043 EDGE -0.2437
-2.0043 EXCEL -0.2437
-2.0043 FACEBOOK -0.2437
-2.3054 HI -0.2437
-2.0043 INSTAGRAM -0.2437
-2.0043 NOTEPAD -0.2437
-1.2262 OPEN -0.2461
-2.0043 PANEL -0.2437
-2.0043 PLAYER -0.2437
-2.0043 POWERPOINT -0.2437
-2.0043 WORD -0.2437
-2.0043 YOUTUBE -0.2437

\2-grams:
-0.6198 <s> CLOSE 0.0000
-1.6990 <s> HI 0.0000
-0.6198 <s> OPEN 0.0000
-0.3010 CALCULATOR </s> -0.3010
-0.3010 CHROME </s> -0.3010
-1.3802 CLOSE CALCULATOR 0.0000
-1.3802 CLOSE CHROME 0.0000
-1.3802 CLOSE CONTROL 0.0000
-1.3802 CLOSE EDGE 0.0000
-1.3802 CLOSE EXCEL 0.0000
-1.3802 CLOSE FACEBOOK 0.0000
-1.3802 CLOSE INSTAGRAM 0.0000
-1.3802 CLOSE NOTEPAD 0.0000
-1.3802 CLOSE PLAYER 0.0000
-1.3802 CLOSE POWERPOINT 0.0000
-1.3802 CLOSE WORD 0.0000
-1.3802 CLOSE YOUTUBE 0.0000
-0.3010 CONTROL PANEL 0.0000
-0.3010 EDGE </s> -0.3010
-0.3010 EXCEL </s> -0.3010
-0.3010 FACEBOOK </s> -0.3010
-0.3010 HI </s> -0.3010
-0.3010 INSTAGRAM </s> -0.3010
-0.3010 NOTEPAD </s> -0.3010
-1.3802 OPEN CALCULATOR 0.0000
-1.3802 OPEN CHROME 0.0000
-1.3802 OPEN CONTROL 0.0000
-1.3802 OPEN EDGE 0.0000
-1.3802 OPEN EXCEL 0.0000
-1.3802 OPEN FACEBOOK 0.0000
-1.3802 OPEN INSTAGRAM 0.0000
-1.3802 OPEN NOTEPAD 0.0000
-1.3802 OPEN PLAYER 0.0000
-1.3802 OPEN POWERPOINT 0.0000
-1.3802 OPEN WORD 0.0000
-1.3802 OPEN YOUTUBE 0.0000
-0.3010 PANEL </s> -0.3010
-0.3010 PLAYER </s> -0.3010
-0.3010 POWERPOINT </s> -0.3010
-0.3010 WORD </s> -0.3010
-0.3010 YOUTUBE </s> -0.3010

\3-grams:
-1.3802 <s> CLOSE CALCULATOR
-1.3802 <s> CLOSE CHROME
-1.3802 <s> CLOSE CONTROL
-1.3802 <s> CLOSE EDGE
-1.3802 <s> CLOSE EXCEL
-1.3802 <s> CLOSE FACEBOOK
-1.3802 <s> CLOSE INSTAGRAM
-1.3802 <s> CLOSE NOTEPAD
-1.3802 <s> CLOSE PLAYER
-1.3802 <s> CLOSE POWERPOINT
-1.3802 <s> CLOSE WORD
-1.3802 <s> CLOSE YOUTUBE
-0.3010 <s> HI </s>
-1.3802 <s> OPEN CALCULATOR
-1.3802 <s> OPEN CHROME
-1.3802 <s> OPEN CONTROL
-1.3802 <s> OPEN EDGE
-1.3802 <s> OPEN EXCEL
-1.3802 <s> OPEN FACEBOOK
-1.3802 <s> OPEN INSTAGRAM
-1.3802 <s> OPEN NOTEPAD
-1.3802 <s> OPEN PLAYER
-1.3802 <s> OPEN POWERPOINT
-1.3802 <s> OPEN WORD
-1.3802 <s> OPEN YOUTUBE
-0.3010 CLOSE CALCULATOR </s>
-0.3010 CLOSE CHROME </s>
-0.3010 CLOSE CONTROL PANEL
-0.3010 CLOSE EDGE </s>
-0.3010 CLOSE EXCEL </s>
-0.3010 CLOSE FACEBOOK </s>
-0.3010 CLOSE INSTAGRAM </s>
-0.3010 CLOSE NOTEPAD </s>
-0.3010 CLOSE PLAYER </s>
-0.3010 CLOSE POWERPOINT </s>
-0.3010 CLOSE WORD </s>
-0.3010 CLOSE YOUTUBE </s>
-0.3010 CONTROL PANEL </s>
-0.3010 OPEN CALCULATOR </s>
-0.3010 OPEN CHROME </s>
-0.3010 OPEN CONTROL PANEL
-0.3010 OPEN EDGE </s>
-0.3010 OPEN EXCEL </s>
-0.3010 OPEN FACEBOOK </s>
-0.3010 OPEN INSTAGRAM </s>
-0.3010 OPEN NOTEPAD </s>
-0.3010 OPEN PLAYER </s>
-0.3010 OPEN POWERPOINT </s>
-0.3010 OPEN WORD </s>
-0.3010 OPEN YOUTUBE </s>

\end\
